Language model created by QuickLM on Sun Apr 16 12:53:03 EDT 2017
Copyright (c) 1996-2010 Carnegie Mellon University and Alexander I. Rudnicky

The model is in standard ARPA format, designed by Doug Paul while he was at MITRE.

The code that was used to produce this language model is available in Open Source.
Please visit http://www.speech.cs.cmu.edu/tools/ for more information

The (fixed) discount mass is 0.5. The backoffs are computed using the ratio method.
This model based on a corpus of 18 sentences and 20 words

\data\
ngram 1=20
ngram 2=36
ngram 3=18

\1-grams:
-0.7782 </s> -0.3010
-0.7782 <s> -0.2218
-2.0334 ADD -0.2218
-2.0334 BACKWARD -0.2218
-2.0334 BOOKMARK -0.2218
-2.0334 BOOKMARKS -0.2218
-2.0334 FACEBOOK -0.2218
-2.0334 FORWARD -0.2218
-2.0334 GMAIL -0.2218
-2.0334 GO -0.2218
-2.0334 GOOGLE -0.2218
-2.0334 HISTORY -0.2218
-2.0334 HOME -0.2218
-2.0334 MIC -0.2218
-2.0334 OPEN -0.2218
-2.0334 REFRESH -0.2218
-2.0334 SHOW -0.2218
-2.0334 STOP -0.2218
-2.0334 TWITTER -0.2218
-2.0334 YOUTUBE -0.2218

\2-grams:
-1.5563 <s> ADD 0.0000
-1.5563 <s> BACKWARD 0.0000
-1.5563 <s> BOOKMARK 0.0000
-1.5563 <s> BOOKMARKS 0.0000
-1.5563 <s> FACEBOOK 0.0000
-1.5563 <s> FORWARD 0.0000
-1.5563 <s> GMAIL 0.0000
-1.5563 <s> GO 0.0000
-1.5563 <s> GOOGLE 0.0000
-1.5563 <s> HISTORY 0.0000
-1.5563 <s> HOME 0.0000
-1.5563 <s> MIC 0.0000
-1.5563 <s> OPEN 0.0000
-1.5563 <s> REFRESH 0.0000
-1.5563 <s> SHOW 0.0000
-1.5563 <s> STOP 0.0000
-1.5563 <s> TWITTER 0.0000
-1.5563 <s> YOUTUBE 0.0000
-0.3010 ADD </s> -0.3010
-0.3010 BACKWARD </s> -0.3010
-0.3010 BOOKMARK </s> -0.3010
-0.3010 BOOKMARKS </s> -0.3010
-0.3010 FACEBOOK </s> -0.3010
-0.3010 FORWARD </s> -0.3010
-0.3010 GMAIL </s> -0.3010
-0.3010 GO </s> -0.3010
-0.3010 GOOGLE </s> -0.3010
-0.3010 HISTORY </s> -0.3010
-0.3010 HOME </s> -0.3010
-0.3010 MIC </s> -0.3010
-0.3010 OPEN </s> -0.3010
-0.3010 REFRESH </s> -0.3010
-0.3010 SHOW </s> -0.3010
-0.3010 STOP </s> -0.3010
-0.3010 TWITTER </s> -0.3010
-0.3010 YOUTUBE </s> -0.3010

\3-grams:
-0.3010 <s> ADD </s>
-0.3010 <s> BACKWARD </s>
-0.3010 <s> BOOKMARK </s>
-0.3010 <s> BOOKMARKS </s>
-0.3010 <s> FACEBOOK </s>
-0.3010 <s> FORWARD </s>
-0.3010 <s> GMAIL </s>
-0.3010 <s> GO </s>
-0.3010 <s> GOOGLE </s>
-0.3010 <s> HISTORY </s>
-0.3010 <s> HOME </s>
-0.3010 <s> MIC </s>
-0.3010 <s> OPEN </s>
-0.3010 <s> REFRESH </s>
-0.3010 <s> SHOW </s>
-0.3010 <s> STOP </s>
-0.3010 <s> TWITTER </s>
-0.3010 <s> YOUTUBE </s>

\end\
